FANN_FLO_2.1
num_layers=3
learning_rate=0.700000
connection_rate=1.000000
network_type=0
learning_momentum=0.000000
training_algorithm=2
train_error_function=1
train_stop_function=0
cascade_output_change_fraction=0.010000
quickprop_decay=-0.000100
quickprop_mu=1.750000
rprop_increase_factor=1.200000
rprop_decrease_factor=0.500000
rprop_delta_min=0.000000
rprop_delta_max=50.000000
rprop_delta_zero=0.100000
cascade_output_stagnation_epochs=12
cascade_candidate_change_fraction=0.010000
cascade_candidate_stagnation_epochs=12
cascade_max_out_epochs=150
cascade_min_out_epochs=50
cascade_max_cand_epochs=150
cascade_min_cand_epochs=50
cascade_num_candidate_groups=2
bit_fail_limit=3.49999994039535522461e-01
cascade_candidate_limit=1.00000000000000000000e+03
cascade_weight_multiplier=4.00000005960464477539e-01
cascade_activation_functions_count=10
cascade_activation_functions=3 5 7 8 10 11 14 15 16 17 
cascade_activation_steepnesses_count=4
cascade_activation_steepnesses=2.50000000000000000000e-01 5.00000000000000000000e-01 7.50000000000000000000e-01 1.00000000000000000000e+00 
layer_sizes=7 37 4 
scale_included=0
neurons (num_inputs, activation_function, activation_steepness)=(0, 0, 0.00000000000000000000e+00) (0, 0, 0.00000000000000000000e+00) (0, 0, 0.00000000000000000000e+00) (0, 0, 0.00000000000000000000e+00) (0, 0, 0.00000000000000000000e+00) (0, 0, 0.00000000000000000000e+00) (0, 0, 0.00000000000000000000e+00) (7, 5, 5.00000000000000000000e-01) (7, 5, 5.00000000000000000000e-01) (7, 5, 5.00000000000000000000e-01) (7, 5, 5.00000000000000000000e-01) (7, 5, 5.00000000000000000000e-01) (7, 5, 5.00000000000000000000e-01) (7, 5, 5.00000000000000000000e-01) (7, 5, 5.00000000000000000000e-01) (7, 5, 5.00000000000000000000e-01) (7, 5, 5.00000000000000000000e-01) (7, 5, 5.00000000000000000000e-01) (7, 5, 5.00000000000000000000e-01) (7, 5, 5.00000000000000000000e-01) (7, 5, 5.00000000000000000000e-01) (7, 5, 5.00000000000000000000e-01) (7, 5, 5.00000000000000000000e-01) (7, 5, 5.00000000000000000000e-01) (7, 5, 5.00000000000000000000e-01) (7, 5, 5.00000000000000000000e-01) (7, 5, 5.00000000000000000000e-01) (7, 5, 5.00000000000000000000e-01) (7, 5, 5.00000000000000000000e-01) (7, 5, 5.00000000000000000000e-01) (7, 5, 5.00000000000000000000e-01) (7, 5, 5.00000000000000000000e-01) (7, 5, 5.00000000000000000000e-01) (7, 5, 5.00000000000000000000e-01) (7, 5, 5.00000000000000000000e-01) (7, 5, 5.00000000000000000000e-01) (7, 5, 5.00000000000000000000e-01) (7, 5, 5.00000000000000000000e-01) (7, 5, 5.00000000000000000000e-01) (7, 5, 5.00000000000000000000e-01) (7, 5, 5.00000000000000000000e-01) (7, 5, 5.00000000000000000000e-01) (7, 5, 5.00000000000000000000e-01) (0, 5, 0.00000000000000000000e+00) (37, 5, 5.00000000000000000000e-01) (37, 5, 5.00000000000000000000e-01) (37, 5, 5.00000000000000000000e-01) (0, 5, 0.00000000000000000000e+00) 
connections (connected_to_neuron, weight)=(0, -4.67029437422752380371e-02) (1, 5.03378733992576599121e-02) (2, 2.37126275897026062012e-03) (3, -6.87017068266868591309e-02) (4, -1.61347992252558469772e-03) (5, -1.06307126581668853760e-01) (6, 2.58546080440282821655e-02) (0, 9.65077430009841918945e-02) (1, 9.06183347105979919434e-02) (2, -2.12722588330507278442e-02) (3, -6.78101629018783569336e-02) (4, -4.01876084506511688232e-02) (5, -2.65755616128444671631e-02) (6, 3.05154616944491863251e-03) (0, 7.68937245011329650879e-02) (1, -2.76877284049987792969e-02) (2, -5.40853813290596008301e-02) (3, 1.00065127015113830566e-01) (4, 5.83587735891342163086e-02) (5, -3.70961464941501617432e-02) (6, 4.28764857351779937744e-02) (0, 7.17198401689529418945e-02) (1, 7.52000585198402404785e-02) (2, -5.70678664371371269226e-03) (3, -7.33038857579231262207e-02) (4, 2.95882020145654678345e-02) (5, -2.70458105951547622681e-02) (6, 4.37139682471752166748e-02) (0, -4.73775900900363922119e-02) (1, -1.99869722127914428711e-02) (2, 9.11737084388732910156e-02) (3, -1.55810685828328132629e-03) (4, -5.17159402370452880859e-02) (5, 3.80557682365179061890e-03) (6, 1.12743545323610305786e-02) (0, 5.16700334846973419189e-02) (1, -1.21926963329315185547e-02) (2, -3.73345911502838134766e-02) (3, -5.50160789862275123596e-03) (4, -5.44021464884281158447e-03) (5, -2.27907253429293632507e-03) (6, 6.75196433439850807190e-03) (0, -2.21419483423233032227e-02) (1, 1.12937241792678833008e-02) (2, -4.88050989806652069092e-02) (3, -5.03474101424217224121e-02) (4, 6.54392838478088378906e-02) (5, -2.50569544732570648193e-02) (6, -3.23774032294750213623e-02) (0, 3.30907255411148071289e-02) (1, 3.34843024611473083496e-02) (2, -7.09171146154403686523e-02) (3, -1.05822188779711723328e-02) (4, 2.38045807927846908569e-02) (5, 2.09977421909570693970e-02) (6, -1.29472929984331130981e-04) (0, -6.75760284066200256348e-02) (1, 7.60012343525886535645e-02) (2, -4.28264550864696502686e-02) (3, -2.84850839525461196899e-02) (4, -4.71794866025447845459e-02) (5, -6.78520649671554565430e-02) (6, 7.22869187593460083008e-02) (0, -6.03555515408515930176e-03) (1, 2.12136134505271911621e-02) (2, 5.84487291052937507629e-03) (3, -7.61549919843673706055e-02) (4, -8.25206786394119262695e-02) (5, 5.35795055329799652100e-02) (6, 8.37112218141555786133e-03) (0, -2.34098024666309356689e-02) (1, -7.32929408550262451172e-02) (2, -7.23615363240242004395e-02) (3, 8.12063366174697875977e-02) (4, 2.61477213352918624878e-02) (5, -2.48163659125566482544e-03) (6, -5.53585961461067199707e-02) (0, 3.03559955209493637085e-02) (1, -9.75179746747016906738e-02) (2, -7.43872392922639846802e-03) (3, -5.83195649087429046631e-02) (4, 4.54470813274383544922e-02) (5, 6.58609997481107711792e-03) (6, 2.00550109148025512695e-02) (0, -4.72755357623100280762e-02) (1, -9.70179960131645202637e-02) (2, -4.72504682838916778564e-02) (3, -1.93683579564094543457e-02) (4, 8.79175364971160888672e-02) (5, 1.49974050000309944153e-02) (6, 4.29260544478893280029e-02) (0, -2.87507884204387664795e-02) (1, 4.14044931530952453613e-02) (2, 6.07849285006523132324e-02) (3, 2.38891039043664932251e-02) (4, 2.24324152804911136627e-03) (5, -4.11188192665576934814e-02) (6, 5.08143147453665733337e-03) (0, -3.19821909070014953613e-02) (1, 6.43756464123725891113e-02) (2, -4.23493385314941406250e-02) (3, 5.88355474174022674561e-02) (4, 8.70791375637054443359e-02) (5, -2.74887564592063426971e-03) (6, 4.50582057237625122070e-02) (0, 3.30409444868564605713e-02) (1, -8.93735662102699279785e-02) (2, 7.84847810864448547363e-02) (3, -4.90240789949893951416e-02) (4, -8.26496034860610961914e-02) (5, -3.96718271076679229736e-02) (6, -1.25090926885604858398e-02) (0, 4.50195781886577606201e-02) (1, 5.31911179423332214355e-02) (2, -8.28173384070396423340e-02) (3, 9.34567525982856750488e-02) (4, 5.16748614609241485596e-02) (5, -3.87019775807857513428e-02) (6, -2.16826163232326507568e-02) (0, 2.16316562145948410034e-02) (1, 7.18589797616004943848e-02) (2, -8.88704955577850341797e-02) (3, 6.92211240530014038086e-02) (4, -1.62132596597075462341e-03) (5, 3.17481867969036102295e-02) (6, 6.40192255377769470215e-03) (0, 5.92769198119640350342e-02) (1, 6.58883675932884216309e-02) (2, -8.19453224539756774902e-02) (3, -5.36321029067039489746e-02) (4, 1.21482368558645248413e-02) (5, -2.03541070222854614258e-02) (6, -7.52775073051452636719e-02) (0, 2.72814035415649414062e-02) (1, 9.90169569849967956543e-02) (2, 5.36851212382316589355e-02) (3, -4.91734370589256286621e-02) (4, -8.37480276823043823242e-02) (5, 2.81124524772167205811e-02) (6, -5.48834446817636489868e-03) (0, -6.33950382471084594727e-02) (1, 7.75895193219184875488e-02) (2, 1.08308725059032440186e-01) (3, 7.27994814515113830566e-02) (4, 4.58457581698894500732e-02) (5, -7.08117410540580749512e-02) (6, 5.04864118993282318115e-02) (0, 1.92124024033546447754e-02) (1, -2.00810134410858154297e-02) (2, -2.57999226450920104980e-02) (3, -7.56645500659942626953e-02) (4, -1.28494594246149063110e-02) (5, 4.24820143962278962135e-04) (6, 5.68899363279342651367e-02) (0, 5.60738630592823028564e-02) (1, -8.83155316114425659180e-02) (2, -2.52309720963239669800e-02) (3, 4.03277352452278137207e-02) (4, 6.75743967294692993164e-02) (5, 1.00059621036052703857e-02) (6, 9.84424948692321777344e-02) (0, 1.06611684896051883698e-03) (1, -8.22328105568885803223e-02) (2, 8.79319459199905395508e-02) (3, -7.12746381759643554688e-02) (4, -9.06334891915321350098e-02) (5, 3.52927595376968383789e-02) (6, -1.29683120176196098328e-02) (0, -9.22204479575157165527e-02) (1, -3.57858091592788696289e-02) (2, 6.03588670492172241211e-02) (3, -5.21165765821933746338e-02) (4, -7.86167085170745849609e-02) (5, 5.31667433679103851318e-02) (6, -5.85728324949741363525e-02) (0, 6.79094195365905761719e-02) (1, 8.77104476094245910645e-02) (2, 8.11263173818588256836e-02) (3, -4.07974198460578918457e-02) (4, -3.73945161700248718262e-02) (5, -7.90949389338493347168e-02) (6, -1.33276265114545822144e-02) (0, 2.68288441002368927002e-02) (1, -9.01988148689270019531e-03) (2, -1.70366484671831130981e-02) (3, -1.49966506287455558777e-02) (4, 1.07164168730378150940e-02) (5, 6.57443925738334655762e-02) (6, -8.26798230409622192383e-02) (0, -2.58783739991486072540e-03) (1, -2.23024711012840270996e-02) (2, -6.76802992820739746094e-02) (3, 8.92565399408340454102e-02) (4, 1.42767364159226417542e-02) (5, -7.23220407962799072266e-02) (6, -1.01554900407791137695e-01) (0, 4.41682897508144378662e-02) (1, 5.15758916735649108887e-02) (2, 3.23077291250228881836e-02) (3, 4.09132875502109527588e-02) (4, -4.94205355644226074219e-02) (5, 1.23966531828045845032e-02) (6, 5.30652627348899841309e-02) (0, -2.37778220325708389282e-02) (1, -4.88060787320137023926e-02) (2, -7.05196037888526916504e-02) (3, -6.85179382562637329102e-02) (4, -4.07589897513389587402e-02) (5, 1.15757398307323455811e-01) (6, -3.06210741400718688965e-02) (0, 1.42933120951056480408e-02) (1, -7.86508023738861083984e-02) (2, 8.06367695331573486328e-02) (3, -7.34884515404701232910e-02) (4, 2.07240730524063110352e-02) (5, -4.63282167911529541016e-02) (6, 1.99514511041343212128e-03) (0, -8.52671936154365539551e-02) (1, -9.70305576920509338379e-02) (2, 3.46708707511425018311e-02) (3, -4.81523945927619934082e-03) (4, -1.94292794913053512573e-02) (5, 4.94813509285449981689e-02) (6, -1.65983904153108596802e-02) (0, 2.66322810202836990356e-02) (1, 5.84425702691078186035e-02) (2, -5.35925477743148803711e-02) (3, -1.50616383180022239685e-02) (4, -4.41571027040481567383e-02) (5, 4.32573780417442321777e-02) (6, -1.87653917819261550903e-02) (0, 3.57130207121372222900e-02) (1, -2.49587967991828918457e-02) (2, -7.45563730597496032715e-02) (3, 8.40817093849182128906e-02) (4, 3.71849127113819122314e-02) (5, -6.52752965688705444336e-02) (6, -9.73696559667587280273e-02) (0, 6.48831352591514587402e-02) (1, -8.08054879307746887207e-02) (2, 3.04592773318290710449e-03) (3, -2.83450242131948471069e-02) (4, -5.97848743200302124023e-02) (5, -2.56673824042081832886e-02) (6, -2.05674720928072929382e-03) (0, 3.98948974907398223877e-02) (1, 1.99380666017532348633e-02) (2, -1.05569824576377868652e-01) (3, 6.69864565134048461914e-02) (4, 8.55572707951068878174e-03) (5, 2.94140819460153579712e-02) (6, -2.25493386387825012207e-02) (7, -1.27726882696151733398e-01) (8, -2.67447773367166519165e-02) (9, 3.10794617980718612671e-02) (10, 9.65379029512405395508e-02) (11, -5.38670383393764495850e-02) (12, -5.48194497823715209961e-02) (13, -1.99174396693706512451e-02) (14, 1.20905295014381408691e-01) (15, -6.39659091830253601074e-02) (16, -1.25011205673217773438e-02) (17, -3.82904149591922760010e-02) (18, 8.49510207772254943848e-02) (19, -1.09051140025258064270e-02) (20, -4.48349155485630035400e-02) (21, -1.02662056684494018555e-01) (22, 1.96777209639549255371e-02) (23, -4.41043265163898468018e-03) (24, -1.59308046102523803711e-01) (25, 1.29705995321273803711e-01) (26, 1.34564250707626342773e-01) (27, -5.66404946148395538330e-02) (28, 1.16835437715053558350e-01) (29, -8.13191458582878112793e-02) (30, 1.64253383874893188477e-01) (31, 5.09638786315917968750e-02) (32, 1.38995856046676635742e-01) (33, 1.62653774023056030273e-01) (34, -2.49638687819242477417e-02) (35, -2.56318040192127227783e-02) (36, 4.57472987473011016846e-02) (37, 1.60959228873252868652e-01) (38, 4.46398854255676269531e-02) (39, -1.16206951439380645752e-01) (40, 9.14999097585678100586e-02) (41, -6.53917640447616577148e-02) (42, -6.19339458644390106201e-02) (43, 5.06920330226421356201e-02) (7, 3.23052942752838134766e-01) (8, 8.63985121250152587891e-02) (9, 1.22965499758720397949e-01) (10, -6.72183465212583541870e-03) (11, 7.88965448737144470215e-02) (12, 2.46676746755838394165e-02) (13, -4.64908629655838012695e-02) (14, 1.03225231170654296875e-01) (15, 4.37632709741592407227e-01) (16, 1.82255640625953674316e-01) (17, 3.00503931939601898193e-02) (18, -2.13050067424774169922e-01) (19, 1.85040339827537536621e-01) (20, 5.55967167019844055176e-02) (21, 4.06437879428267478943e-03) (22, 1.15426704287528991699e-02) (23, -9.17170792818069458008e-02) (24, -3.87741103768348693848e-02) (25, -1.03211455047130584717e-01) (26, 9.21203270554542541504e-02) (27, 2.76526380330324172974e-02) (28, 2.71998465061187744141e-01) (29, -1.16391710937023162842e-01) (30, -1.20855785906314849854e-01) (31, -1.32892625406384468079e-02) (32, 2.41357330232858657837e-02) (33, -3.62446516752243041992e-01) (34, 1.69342294335365295410e-01) (35, 4.37820255756378173828e-02) (36, 1.33181232959032058716e-02) (37, -2.03570425510406494141e-01) (38, 7.86284729838371276855e-02) (39, -1.23928539454936981201e-01) (40, -9.99561976641416549683e-03) (41, 6.02420195937156677246e-02) (42, -9.06391814351081848145e-02) (43, -1.59554645419120788574e-01) (7, -3.62372286617755889893e-02) (8, -4.70048002898693084717e-03) (9, -1.25213293358683586121e-02) (10, 3.49043756723403930664e-02) (11, -7.40276128053665161133e-02) (12, -5.40433339774608612061e-02) (13, -2.81404983252286911011e-02) (14, -1.62211209535598754883e-01) (15, 1.16106364876031875610e-02) (16, -8.50388854742050170898e-02) (17, 1.39592569321393966675e-02) (18, -5.92304486781358718872e-03) (19, -5.47141917049884796143e-02) (20, -1.08330063521862030029e-02) (21, 6.17883913218975067139e-02) (22, 5.86899891495704650879e-02) (23, 3.59979644417762756348e-02) (24, 1.16459056735038757324e-01) (25, -6.35151937603950500488e-02) (26, -1.10192276537418365479e-01) (27, 6.62260055541992187500e-02) (28, -9.81014221906661987305e-02) (29, 1.48154914379119873047e-01) (30, -4.34352345764636993408e-02) (31, 3.12935188412666320801e-02) (32, -8.72699320316314697266e-02) (33, -6.85177072882652282715e-02) (34, -7.02875899150967597961e-03) (35, 6.33253455162048339844e-02) (36, -5.85491536185145378113e-03) (37, -1.84727944433689117432e-02) (38, -1.33128523826599121094e-01) (39, 1.00492082536220550537e-01) (40, -1.24451629817485809326e-01) (41, 6.54166191816329956055e-02) (42, 1.29791349172592163086e-01) (43, 2.90236115455627441406e+00) 
