FANN_FLO_2.1
num_layers=3
learning_rate=0.700000
connection_rate=1.000000
network_type=0
learning_momentum=0.000000
training_algorithm=2
train_error_function=1
train_stop_function=0
cascade_output_change_fraction=0.010000
quickprop_decay=-0.000100
quickprop_mu=1.750000
rprop_increase_factor=1.200000
rprop_decrease_factor=0.500000
rprop_delta_min=0.000000
rprop_delta_max=50.000000
rprop_delta_zero=0.100000
cascade_output_stagnation_epochs=12
cascade_candidate_change_fraction=0.010000
cascade_candidate_stagnation_epochs=12
cascade_max_out_epochs=150
cascade_min_out_epochs=50
cascade_max_cand_epochs=150
cascade_min_cand_epochs=50
cascade_num_candidate_groups=2
bit_fail_limit=3.49999994039535522461e-01
cascade_candidate_limit=1.00000000000000000000e+03
cascade_weight_multiplier=4.00000005960464477539e-01
cascade_activation_functions_count=10
cascade_activation_functions=3 5 7 8 10 11 14 15 16 17 
cascade_activation_steepnesses_count=4
cascade_activation_steepnesses=2.50000000000000000000e-01 5.00000000000000000000e-01 7.50000000000000000000e-01 1.00000000000000000000e+00 
layer_sizes=7 37 4 
scale_included=0
neurons (num_inputs, activation_function, activation_steepness)=(0, 0, 0.00000000000000000000e+00) (0, 0, 0.00000000000000000000e+00) (0, 0, 0.00000000000000000000e+00) (0, 0, 0.00000000000000000000e+00) (0, 0, 0.00000000000000000000e+00) (0, 0, 0.00000000000000000000e+00) (0, 0, 0.00000000000000000000e+00) (7, 5, 5.00000000000000000000e-01) (7, 5, 5.00000000000000000000e-01) (7, 5, 5.00000000000000000000e-01) (7, 5, 5.00000000000000000000e-01) (7, 5, 5.00000000000000000000e-01) (7, 5, 5.00000000000000000000e-01) (7, 5, 5.00000000000000000000e-01) (7, 5, 5.00000000000000000000e-01) (7, 5, 5.00000000000000000000e-01) (7, 5, 5.00000000000000000000e-01) (7, 5, 5.00000000000000000000e-01) (7, 5, 5.00000000000000000000e-01) (7, 5, 5.00000000000000000000e-01) (7, 5, 5.00000000000000000000e-01) (7, 5, 5.00000000000000000000e-01) (7, 5, 5.00000000000000000000e-01) (7, 5, 5.00000000000000000000e-01) (7, 5, 5.00000000000000000000e-01) (7, 5, 5.00000000000000000000e-01) (7, 5, 5.00000000000000000000e-01) (7, 5, 5.00000000000000000000e-01) (7, 5, 5.00000000000000000000e-01) (7, 5, 5.00000000000000000000e-01) (7, 5, 5.00000000000000000000e-01) (7, 5, 5.00000000000000000000e-01) (7, 5, 5.00000000000000000000e-01) (7, 5, 5.00000000000000000000e-01) (7, 5, 5.00000000000000000000e-01) (7, 5, 5.00000000000000000000e-01) (7, 5, 5.00000000000000000000e-01) (7, 5, 5.00000000000000000000e-01) (7, 5, 5.00000000000000000000e-01) (7, 5, 5.00000000000000000000e-01) (7, 5, 5.00000000000000000000e-01) (7, 5, 5.00000000000000000000e-01) (7, 5, 5.00000000000000000000e-01) (0, 5, 0.00000000000000000000e+00) (37, 5, 5.00000000000000000000e-01) (37, 5, 5.00000000000000000000e-01) (37, 5, 5.00000000000000000000e-01) (0, 5, 0.00000000000000000000e+00) 
connections (connected_to_neuron, weight)=(0, 1.12365745007991790771e-01) (1, -5.84328286349773406982e-02) (2, -8.45734775066375732422e-03) (3, 5.72637133300304412842e-02) (4, 3.75433191657066345215e-02) (5, -1.32683441042900085449e-02) (6, -2.77130603790283203125e-02) (0, -3.54539267718791961670e-02) (1, 6.88729956746101379395e-02) (2, 8.54746326804161071777e-02) (3, 5.81124722957611083984e-02) (4, -4.30135335773229598999e-03) (5, -7.75436982512474060059e-02) (6, -3.55904810130596160889e-02) (0, -2.35793692991137504578e-03) (1, 6.07147812843322753906e-05) (2, 1.33096113801002502441e-01) (3, 5.86400292813777923584e-02) (4, 1.52498766779899597168e-01) (5, -6.65596779435873031616e-03) (6, -4.78079840540885925293e-02) (0, -6.73641115427017211914e-02) (1, 2.07167267799377441406e-02) (2, -1.10380435362458229065e-02) (3, 4.27894704043865203857e-02) (4, -1.43847569823265075684e-01) (5, -1.61409035325050354004e-01) (6, 2.45154835283756256104e-02) (0, 1.63202099502086639404e-02) (1, -3.65513041615486145020e-02) (2, -1.07216864824295043945e-01) (3, 3.96813265979290008545e-02) (4, -7.41673335433006286621e-02) (5, -7.73123875260353088379e-02) (6, 7.72439688444137573242e-02) (0, 1.67007729411125183105e-01) (1, 2.69809737801551818848e-02) (2, 2.63775903731584548950e-02) (3, -5.81169873476028442383e-02) (4, 9.03139710426330566406e-02) (5, 1.41249201260507106781e-03) (6, -1.10600492917001247406e-03) (0, 1.28176465630531311035e-01) (1, -8.11018049716949462891e-02) (2, 1.99657119810581207275e-02) (3, -7.29257911443710327148e-02) (4, 7.06787183880805969238e-02) (5, -7.10992328822612762451e-03) (6, 2.69136857241392135620e-02) (0, -3.93456853926181793213e-02) (1, -2.57297456264495849609e-02) (2, -6.43959343433380126953e-02) (3, -1.02734096348285675049e-01) (4, 3.94914783537387847900e-02) (5, -1.13038323819637298584e-01) (6, 1.03011384606361389160e-01) (0, -5.84289291873574256897e-03) (1, -5.64801283180713653564e-02) (2, -2.08291551098227500916e-03) (3, -9.23375785350799560547e-02) (4, 9.53737795352935791016e-02) (5, 6.98948428034782409668e-02) (6, -4.16509248316287994385e-02) (0, -9.73855331540107727051e-02) (1, 8.33596661686897277832e-02) (2, -6.54617920517921447754e-02) (3, 9.22711044549942016602e-02) (4, 5.78360923100262880325e-05) (5, -3.34987416863441467285e-02) (6, -6.08833506703376770020e-02) (0, -1.10516093671321868896e-01) (1, -1.62689089775085449219e-02) (2, -9.61359515786170959473e-02) (3, 8.60849171876907348633e-02) (4, -1.57095286995172500610e-02) (5, -2.78730671852827072144e-02) (6, -7.06105828285217285156e-02) (0, 2.52676685340702533722e-03) (1, 3.16339954733848571777e-02) (2, 1.78465098142623901367e-01) (3, 3.84248085319995880127e-02) (4, -5.26891835033893585205e-03) (5, 6.95889964699745178223e-02) (6, -5.52493333816528320312e-02) (0, -1.37143388390541076660e-01) (1, 2.32170075178146362305e-02) (2, -6.06232024729251861572e-02) (3, -8.81449207663536071777e-02) (4, 2.49953884631395339966e-02) (5, -5.10892346501350402832e-02) (6, -4.16877418756484985352e-02) (0, 1.10372781753540039062e-01) (1, 7.21383318305015563965e-02) (2, 2.13234245777130126953e-01) (3, -4.82904352247714996338e-03) (4, 2.05484196543693542480e-01) (5, 5.81418126821517944336e-02) (6, -1.71386376023292541504e-01) (0, -4.57887277007102966309e-02) (1, -1.50705054402351379395e-02) (2, -5.30964368954300880432e-03) (3, -2.87734009325504302979e-02) (4, 5.58997765183448791504e-02) (5, 1.68758723884820938110e-02) (6, -2.79609747231006622314e-02) (0, 2.66672838479280471802e-02) (1, -7.98951610922813415527e-02) (2, 3.10680214315652847290e-02) (3, -3.28021682798862457275e-03) (4, 1.12513020634651184082e-01) (5, 2.07914225757122039795e-02) (6, -1.35090768337249755859e-01) (0, 1.14216536283493041992e-01) (1, 4.07686755061149597168e-02) (2, 1.21325179934501647949e-01) (3, 6.24590367078781127930e-02) (4, 2.60725505650043487549e-02) (5, 2.45878030546009540558e-03) (6, 1.09366113319993019104e-02) (0, 5.38442879915237426758e-02) (1, 3.10224816203117370605e-02) (2, 2.24643692374229431152e-01) (3, 1.29693634808063507080e-02) (4, 1.38281360268592834473e-01) (5, 1.88055023550987243652e-01) (6, -4.50127311050891876221e-02) (0, 2.93077565729618072510e-02) (1, 6.10688850283622741699e-02) (2, 4.62212786078453063965e-02) (3, 2.93985940515995025635e-02) (4, 2.35324408859014511108e-02) (5, 1.53712719678878784180e-01) (6, 1.89908202737569808960e-02) (0, 3.28605435788631439209e-02) (1, 5.81034272909164428711e-03) (2, 8.54593738913536071777e-02) (3, -5.85111463442444801331e-03) (4, 1.55636370182037353516e-01) (5, 1.55865356326103210449e-01) (6, -5.09035699069499969482e-02) (0, 4.79640364646911621094e-02) (1, 8.61474946141242980957e-02) (2, -1.83646026998758316040e-02) (3, -5.98252564668655395508e-02) (4, 1.04078255593776702881e-01) (5, 1.40954285860061645508e-01) (6, 1.66636742651462554932e-02) (0, 3.43763493001461029053e-02) (1, -9.58461910486221313477e-02) (2, 4.85870474949479103088e-03) (3, -8.22968930006027221680e-02) (4, -2.68577244132757186890e-02) (5, -5.58340875431895256042e-03) (6, 8.80911424756050109863e-02) (0, -1.00749701261520385742e-01) (1, 9.37976688146591186523e-03) (2, -2.67027039080858230591e-02) (3, -5.71567704901099205017e-03) (4, -7.24476352334022521973e-02) (5, 4.20000106096267700195e-02) (6, -3.56074385344982147217e-02) (0, -8.49768891930580139160e-02) (1, 6.10721483826637268066e-02) (2, -1.93224370479583740234e-01) (3, 2.40699090063571929932e-02) (4, -1.44425824284553527832e-01) (5, -1.37484326958656311035e-01) (6, 2.83714458346366882324e-02) (0, -7.32382237911224365234e-02) (1, 9.99668464064598083496e-02) (2, -8.62374082207679748535e-02) (3, -4.10667397081851959229e-02) (4, -9.61030423641204833984e-02) (5, -2.81834036111831665039e-01) (6, 1.87979400157928466797e-01) (0, 1.84655413031578063965e-02) (1, 6.41831532120704650879e-02) (2, 5.54167805239558219910e-03) (3, 4.30939393118023872375e-03) (4, 7.43014588952064514160e-02) (5, -2.75952406227588653564e-02) (6, 1.95917002856731414795e-02) (0, -7.27121308445930480957e-02) (1, -7.71049857139587402344e-02) (2, -1.31999790668487548828e-01) (3, 3.65622974932193756104e-02) (4, -5.13797625899314880371e-02) (5, -1.58808454871177673340e-02) (6, 2.25066468119621276855e-02) (0, -5.73934949934482574463e-02) (1, 5.26787713170051574707e-02) (2, 4.08587697893381118774e-03) (3, 2.19372697174549102783e-02) (4, 5.75208477675914764404e-02) (5, 2.21367161720991134644e-02) (6, -9.34966281056404113770e-02) (0, 1.75897359848022460938e-01) (1, 5.21957948803901672363e-02) (2, 7.18230307102203369141e-02) (3, 8.00399258732795715332e-02) (4, 1.56710490584373474121e-01) (5, 6.77686333656311035156e-02) (6, -1.60672813653945922852e-01) (0, 1.09597563743591308594e-01) (1, -3.63903120160102844238e-02) (2, 1.27860635519027709961e-01) (3, -4.37447503209114074707e-02) (4, 6.06418866664171218872e-03) (5, 2.74887662380933761597e-02) (6, -2.30370964854955673218e-02) (0, -2.62397639453411102295e-02) (1, 1.56514793634414672852e-02) (2, -1.53426170349121093750e-01) (3, -8.84610973298549652100e-03) (4, -9.57489758729934692383e-02) (5, -1.01899325847625732422e-01) (6, 7.57985860109329223633e-02) (0, 1.16679705679416656494e-02) (1, 1.85355544090270996094e-04) (2, 2.51430254429578781128e-02) (3, -2.36216001212596893311e-02) (4, -2.30875448323786258698e-03) (5, 8.55098515748977661133e-02) (6, 4.78845015168190002441e-02) (0, -1.05316331610083580017e-03) (1, -8.09570848941802978516e-02) (2, -1.31231382489204406738e-01) (3, 4.25540767610073089600e-02) (4, -3.02434200420975685120e-03) (5, -6.39455169439315795898e-02) (6, 9.49480086565017700195e-02) (0, -1.03472158312797546387e-01) (1, 7.35360011458396911621e-02) (2, -7.46008381247520446777e-02) (3, -4.71232384443283081055e-02) (4, -2.02092245221138000488e-01) (5, -1.25054389238357543945e-01) (6, 1.52234122157096862793e-01) (0, -6.99742361903190612793e-02) (1, 6.34056851267814636230e-02) (2, -7.00688362121582031250e-02) (3, -4.13536727428436279297e-02) (4, -5.92576228082180023193e-02) (5, 1.07044707983732223511e-02) (6, 9.90292429924011230469e-02) (0, 6.86295703053474426270e-02) (1, -1.85718089342117309570e-02) (2, 6.78599029779434204102e-02) (3, -1.09791138675063848495e-03) (4, 2.47357666492462158203e-01) (5, 1.48300930857658386230e-01) (6, -1.03786744177341461182e-01) (7, 1.56653448939323425293e-01) (8, 8.64544659852981567383e-02) (9, 3.46050225198268890381e-03) (10, -5.82072623074054718018e-02) (11, -6.07419461011886596680e-02) (12, 3.99341322481632232666e-02) (13, 6.38236552476882934570e-02) (14, -2.10372339934110641479e-02) (15, 1.96621924638748168945e-01) (16, -1.01568199694156646729e-01) (17, -2.37500369548797607422e-02) (18, 5.24832382798194885254e-02) (19, 1.02589204907417297363e-02) (20, 1.55838966369628906250e-01) (21, -4.28594462573528289795e-03) (22, 2.30372790247201919556e-02) (23, 7.55383446812629699707e-02) (24, 1.01686142385005950928e-01) (25, 1.67307898402214050293e-01) (26, 1.97693854570388793945e-01) (27, 1.15819901227951049805e-01) (28, -1.59533336758613586426e-01) (29, 2.04605683684349060059e-02) (30, -7.06842690706253051758e-02) (31, -1.52881518006324768066e-01) (32, -2.36624125391244888306e-02) (33, -3.69083508849143981934e-02) (34, 6.82149231433868408203e-02) (35, 5.59159629046916961670e-02) (36, 7.25139528512954711914e-02) (37, -1.30328446626663208008e-01) (38, 1.38022750616073608398e-01) (39, -2.18703523278236389160e-02) (40, -1.42923817038536071777e-01) (41, -1.37255221605300903320e-01) (42, 2.35784396529197692871e-01) (43, 5.42910397052764892578e-01) (7, -2.61049233376979827881e-02) (8, 2.86625176668167114258e-02) (9, -1.50223091244697570801e-01) (10, 1.92228659987449645996e-01) (11, 1.50673702359199523926e-01) (12, -1.47627294063568115234e-01) (13, -8.87966603040695190430e-02) (14, 1.45882293581962585449e-01) (15, -6.44940286874771118164e-02) (16, 5.49532584846019744873e-02) (17, 4.70713376998901367188e-02) (18, -1.14995978772640228271e-01) (19, 9.80631783604621887207e-02) (20, -3.31461787223815917969e-01) (21, -2.27626971900463104248e-02) (22, -1.44812956452369689941e-01) (23, -1.01445637643337249756e-01) (24, -2.90324747562408447266e-01) (25, -8.94566252827644348145e-02) (26, -2.04597383737564086914e-01) (27, -7.43892863392829895020e-02) (28, -6.45818561315536499023e-03) (29, 3.67593690752983093262e-02) (30, 2.66555666923522949219e-01) (31, 3.22543114423751831055e-01) (32, 7.21743144094944000244e-03) (33, 1.52257278561592102051e-01) (34, -5.07664307951927185059e-02) (35, -2.86826997995376586914e-01) (36, -1.06888704001903533936e-01) (37, 1.95784956216812133789e-01) (38, 4.96138725429773330688e-03) (39, 1.13149918615818023682e-01) (40, 2.86869496107101440430e-01) (41, 1.29691675305366516113e-01) (42, -2.42995738983154296875e-01) (43, 1.87816631793975830078e+00) (7, 1.27113014459609985352e-01) (8, 8.86498317122459411621e-02) (9, 8.00499692559242248535e-02) (10, -4.69633080065250396729e-02) (11, -3.94603870809078216553e-02) (12, -3.64059917628765106201e-02) (13, -2.30177491903305053711e-02) (14, -5.14718657359480857849e-03) (15, 5.73438033461570739746e-02) (16, 7.15883215889334678650e-03) (17, -1.29067033529281616211e-01) (18, 1.37010782957077026367e-01) (19, 1.61884725093841552734e-02) (20, 1.94240450859069824219e-01) (21, 1.72518752515316009521e-02) (22, 8.28261598944664001465e-02) (23, 7.28369653224945068359e-02) (24, 1.57871857285499572754e-01) (25, 5.47691322863101959229e-02) (26, 9.82708483934402465820e-02) (27, 1.57921299338340759277e-01) (28, -1.29562839865684509277e-01) (29, -8.82616713643074035645e-02) (30, -1.24522671103477478027e-01) (31, -1.73978954553604125977e-01) (32, 1.25933721661567687988e-01) (33, 1.82313304394483566284e-02) (34, 3.02673261612653732300e-02) (35, 1.42836287617683410645e-01) (36, 1.18755944073200225830e-01) (37, -1.04987546801567077637e-01) (38, 9.55072939395904541016e-02) (39, -1.33991643786430358887e-01) (40, -1.64500266313552856445e-01) (41, -1.99786256998777389526e-02) (42, 2.38086730241775512695e-01) (43, 5.91648399829864501953e-01) 
