FANN_FLO_2.1
num_layers=3
learning_rate=0.700000
connection_rate=1.000000
network_type=0
learning_momentum=0.000000
training_algorithm=2
train_error_function=1
train_stop_function=0
cascade_output_change_fraction=0.010000
quickprop_decay=-0.000100
quickprop_mu=1.750000
rprop_increase_factor=1.200000
rprop_decrease_factor=0.500000
rprop_delta_min=0.000000
rprop_delta_max=50.000000
rprop_delta_zero=0.100000
cascade_output_stagnation_epochs=12
cascade_candidate_change_fraction=0.010000
cascade_candidate_stagnation_epochs=12
cascade_max_out_epochs=150
cascade_min_out_epochs=50
cascade_max_cand_epochs=150
cascade_min_cand_epochs=50
cascade_num_candidate_groups=2
bit_fail_limit=3.49999994039535522461e-01
cascade_candidate_limit=1.00000000000000000000e+03
cascade_weight_multiplier=4.00000005960464477539e-01
cascade_activation_functions_count=10
cascade_activation_functions=3 5 7 8 10 11 14 15 16 17 
cascade_activation_steepnesses_count=4
cascade_activation_steepnesses=2.50000000000000000000e-01 5.00000000000000000000e-01 7.50000000000000000000e-01 1.00000000000000000000e+00 
layer_sizes=6 11 2 
scale_included=0
neurons (num_inputs, activation_function, activation_steepness)=(0, 0, 0.00000000000000000000e+00) (0, 0, 0.00000000000000000000e+00) (0, 0, 0.00000000000000000000e+00) (0, 0, 0.00000000000000000000e+00) (0, 0, 0.00000000000000000000e+00) (0, 0, 0.00000000000000000000e+00) (6, 5, 5.00000000000000000000e-01) (6, 5, 5.00000000000000000000e-01) (6, 5, 5.00000000000000000000e-01) (6, 5, 5.00000000000000000000e-01) (6, 5, 5.00000000000000000000e-01) (6, 5, 5.00000000000000000000e-01) (6, 5, 5.00000000000000000000e-01) (6, 5, 5.00000000000000000000e-01) (6, 5, 5.00000000000000000000e-01) (6, 5, 5.00000000000000000000e-01) (0, 5, 0.00000000000000000000e+00) (11, 5, 5.00000000000000000000e-01) (0, 5, 0.00000000000000000000e+00) 
connections (connected_to_neuron, weight)=(0, -5.63107803463935852051e-02) (1, 5.60095533728599548340e-02) (2, 5.73996230959892272949e-02) (3, 8.20357650518417358398e-02) (4, 1.37273175641894340515e-02) (5, 9.08822342753410339355e-02) (0, -6.18962235748767852783e-02) (1, 3.58643867075443267822e-02) (2, -1.83400220703333616257e-03) (3, -1.00464746356010437012e-01) (4, -2.55184192210435867310e-02) (5, -8.78260657191276550293e-03) (0, 7.57546350359916687012e-02) (1, -7.97309949994087219238e-02) (2, -4.60678003728389739990e-02) (3, 1.11507903784513473511e-02) (4, 2.10313368588685989380e-02) (5, -5.32702580094337463379e-02) (0, -5.18303997814655303955e-02) (1, 3.71614061295986175537e-02) (2, -1.66855752468109130859e-02) (3, 4.95626479387283325195e-02) (4, 1.00618392229080200195e-01) (5, -8.89828428626060485840e-02) (0, 5.50533011555671691895e-02) (1, 6.03980123996734619141e-02) (2, -6.69880285859107971191e-02) (3, 6.49292618036270141602e-02) (4, 8.57092514634132385254e-02) (5, 2.16686688363552093506e-02) (0, 2.97889858484268188477e-03) (1, -7.04060494899749755859e-02) (2, -8.74789804220199584961e-03) (3, -3.30664850771427154541e-02) (4, -7.64709562063217163086e-02) (5, -9.41592156887054443359e-02) (0, -4.91135083138942718506e-02) (1, -3.68357822299003601074e-02) (2, 4.94877099990844726562e-02) (3, 5.35296536982059478760e-02) (4, -2.93410699814558029175e-02) (5, -7.54712745547294616699e-02) (0, -5.99816851317882537842e-02) (1, -4.81320247054100036621e-02) (2, -6.08006529510021209717e-02) (3, 1.32392300292849540710e-03) (4, 4.79284040629863739014e-02) (5, 5.62925525009632110596e-02) (0, 4.09507080912590026855e-02) (1, 9.02357548475265502930e-02) (2, -9.64289065450429916382e-03) (3, -8.30335319042205810547e-02) (4, 3.81592400372028350830e-02) (5, -7.98290595412254333496e-03) (0, -6.45828992128372192383e-02) (1, 2.97780591063201427460e-03) (2, -6.10559992492198944092e-02) (3, -2.13271733373403549194e-02) (4, -5.94425424933433532715e-02) (5, -8.19183290004730224609e-02) (6, 6.42661750316619873047e-02) (7, 5.63944429159164428711e-02) (8, -4.34450060129165649414e-02) (9, -3.88869903981685638428e-02) (10, -1.14838689565658569336e-01) (11, -1.31330788135528564453e-02) (12, -2.03769281506538391113e-02) (13, -3.49402576684951782227e-02) (14, 3.20594608783721923828e-02) (15, -5.54832033812999725342e-02) (16, -3.00167892128229141235e-02) 
