FANN_FLO_2.1
num_layers=3
learning_rate=0.700000
connection_rate=1.000000
network_type=0
learning_momentum=0.000000
training_algorithm=2
train_error_function=1
train_stop_function=0
cascade_output_change_fraction=0.010000
quickprop_decay=-0.000100
quickprop_mu=1.750000
rprop_increase_factor=1.200000
rprop_decrease_factor=0.500000
rprop_delta_min=0.000000
rprop_delta_max=50.000000
rprop_delta_zero=0.100000
cascade_output_stagnation_epochs=12
cascade_candidate_change_fraction=0.010000
cascade_candidate_stagnation_epochs=12
cascade_max_out_epochs=150
cascade_min_out_epochs=50
cascade_max_cand_epochs=150
cascade_min_cand_epochs=50
cascade_num_candidate_groups=2
bit_fail_limit=3.49999994039535522461e-01
cascade_candidate_limit=1.00000000000000000000e+03
cascade_weight_multiplier=4.00000005960464477539e-01
cascade_activation_functions_count=10
cascade_activation_functions=3 5 7 8 10 11 14 15 16 17 
cascade_activation_steepnesses_count=4
cascade_activation_steepnesses=2.50000000000000000000e-01 5.00000000000000000000e-01 7.50000000000000000000e-01 1.00000000000000000000e+00 
layer_sizes=6 11 4 
scale_included=0
neurons (num_inputs, activation_function, activation_steepness)=(0, 0, 0.00000000000000000000e+00) (0, 0, 0.00000000000000000000e+00) (0, 0, 0.00000000000000000000e+00) (0, 0, 0.00000000000000000000e+00) (0, 0, 0.00000000000000000000e+00) (0, 0, 0.00000000000000000000e+00) (6, 5, 5.00000000000000000000e-01) (6, 5, 5.00000000000000000000e-01) (6, 5, 5.00000000000000000000e-01) (6, 5, 5.00000000000000000000e-01) (6, 5, 5.00000000000000000000e-01) (6, 5, 5.00000000000000000000e-01) (6, 5, 5.00000000000000000000e-01) (6, 5, 5.00000000000000000000e-01) (6, 5, 5.00000000000000000000e-01) (6, 5, 5.00000000000000000000e-01) (0, 5, 0.00000000000000000000e+00) (11, 5, 5.00000000000000000000e-01) (11, 5, 5.00000000000000000000e-01) (11, 5, 5.00000000000000000000e-01) (0, 5, 0.00000000000000000000e+00) 
connections (connected_to_neuron, weight)=(0, 6.78276866674423217773e-02) (1, 6.78645148873329162598e-02) (2, 1.23879328370094299316e-01) (3, -8.57477039098739624023e-02) (4, 1.54908552765846252441e-01) (5, -7.36243054270744323730e-02) (0, 2.37188488245010375977e-02) (1, -8.44760239124298095703e-02) (2, -2.15689428150653839111e-02) (3, -7.05366134643554687500e-02) (4, 5.11175990104675292969e-02) (5, -5.44053539633750915527e-02) (0, -3.91079625114798545837e-03) (1, 5.23508861660957336426e-02) (2, 3.11770234256982803345e-02) (3, -3.26344110071659088135e-02) (4, -7.34260976314544677734e-02) (5, 3.53486277163028717041e-02) (0, 6.44208118319511413574e-02) (1, 6.60609677433967590332e-02) (2, 1.24124914407730102539e-01) (3, 5.77931515872478485107e-02) (4, 3.93051691353321075439e-02) (5, -1.42356947064399719238e-01) (0, 1.48304268717765808105e-01) (1, -2.85393148660659790039e-02) (2, 1.63281768560409545898e-01) (3, -2.07560248672962188721e-02) (4, 2.35565546900033950806e-02) (5, -4.97682020068168640137e-02) (0, -1.27337083220481872559e-01) (1, 8.58899205923080444336e-03) (2, -9.47531610727310180664e-02) (3, 9.04599800705909729004e-02) (4, -8.72368291020393371582e-02) (5, 7.55623653531074523926e-02) (0, -1.12951040267944335938e-01) (1, 8.30155983567237854004e-02) (2, -1.55957102775573730469e-01) (3, 2.54033952951431274414e-02) (4, -2.31287613511085510254e-01) (5, 2.16949477791786193848e-01) (0, -7.07572624087333679199e-02) (1, 1.62479430437088012695e-02) (2, 1.65587421506643295288e-02) (3, 8.40770229697227478027e-02) (4, 7.18061998486518859863e-02) (5, 8.09637382626533508301e-02) (0, 4.13137348368763923645e-03) (1, 2.14318186044692993164e-03) (2, 3.03327627480030059814e-02) (3, -1.90486237406730651855e-02) (4, -4.72421571612358093262e-02) (5, -7.19605386257171630859e-02) (0, -1.06604315340518951416e-01) (1, -8.28577503561973571777e-02) (2, -1.08046159148216247559e-01) (3, -5.03612570464611053467e-02) (4, -1.10840201377868652344e-01) (5, 1.26762673258781433105e-01) (6, 9.26919206976890563965e-02) (7, 6.15693368017673492432e-02) (8, -6.39868080615997314453e-02) (9, 2.69207032397389411926e-03) (10, 5.17572872340679168701e-02) (11, 5.61702027916908264160e-02) (12, 9.71151813864707946777e-02) (13, -2.27112341672182083130e-02) (14, 3.16999703645706176758e-02) (15, -2.17974539846181869507e-02) (16, -7.11581436917185783386e-03) (6, 3.78890037536621093750e-02) (7, -5.28550967574119567871e-02) (8, -4.70592267811298370361e-02) (9, -4.63003106415271759033e-02) (10, 7.27333873510360717773e-02) (11, -5.95975853502750396729e-02) (12, -4.84683103859424591064e-02) (13, 4.56771738827228546143e-02) (14, 4.35420572757720947266e-02) (15, 5.02643808722496032715e-02) (16, 2.15582083910703659058e-02) (6, -2.22608745098114013672e-01) (7, -7.62032940983772277832e-02) (8, 4.36131879687309265137e-02) (9, -1.73344284296035766602e-01) (10, -2.06792667508125305176e-01) (11, 2.05443128943443298340e-01) (12, 3.62367480993270874023e-01) (13, 2.78022978454828262329e-02) (14, -2.30989549309015274048e-02) (15, 2.35650375485420227051e-01) (16, 1.71407163143157958984e+00) 
