FANN_FLO_2.1
num_layers=3
learning_rate=0.700000
connection_rate=1.000000
network_type=0
learning_momentum=0.000000
training_algorithm=2
train_error_function=1
train_stop_function=0
cascade_output_change_fraction=0.010000
quickprop_decay=-0.000100
quickprop_mu=1.750000
rprop_increase_factor=1.200000
rprop_decrease_factor=0.500000
rprop_delta_min=0.000000
rprop_delta_max=50.000000
rprop_delta_zero=0.100000
cascade_output_stagnation_epochs=12
cascade_candidate_change_fraction=0.010000
cascade_candidate_stagnation_epochs=12
cascade_max_out_epochs=150
cascade_min_out_epochs=50
cascade_max_cand_epochs=150
cascade_min_cand_epochs=50
cascade_num_candidate_groups=2
bit_fail_limit=3.49999994039535522461e-01
cascade_candidate_limit=1.00000000000000000000e+03
cascade_weight_multiplier=4.00000005960464477539e-01
cascade_activation_functions_count=10
cascade_activation_functions=3 5 7 8 10 11 14 15 16 17 
cascade_activation_steepnesses_count=4
cascade_activation_steepnesses=2.50000000000000000000e-01 5.00000000000000000000e-01 7.50000000000000000000e-01 1.00000000000000000000e+00 
layer_sizes=7 37 4 
scale_included=0
neurons (num_inputs, activation_function, activation_steepness)=(0, 0, 0.00000000000000000000e+00) (0, 0, 0.00000000000000000000e+00) (0, 0, 0.00000000000000000000e+00) (0, 0, 0.00000000000000000000e+00) (0, 0, 0.00000000000000000000e+00) (0, 0, 0.00000000000000000000e+00) (0, 0, 0.00000000000000000000e+00) (7, 5, 5.00000000000000000000e-01) (7, 5, 5.00000000000000000000e-01) (7, 5, 5.00000000000000000000e-01) (7, 5, 5.00000000000000000000e-01) (7, 5, 5.00000000000000000000e-01) (7, 5, 5.00000000000000000000e-01) (7, 5, 5.00000000000000000000e-01) (7, 5, 5.00000000000000000000e-01) (7, 5, 5.00000000000000000000e-01) (7, 5, 5.00000000000000000000e-01) (7, 5, 5.00000000000000000000e-01) (7, 5, 5.00000000000000000000e-01) (7, 5, 5.00000000000000000000e-01) (7, 5, 5.00000000000000000000e-01) (7, 5, 5.00000000000000000000e-01) (7, 5, 5.00000000000000000000e-01) (7, 5, 5.00000000000000000000e-01) (7, 5, 5.00000000000000000000e-01) (7, 5, 5.00000000000000000000e-01) (7, 5, 5.00000000000000000000e-01) (7, 5, 5.00000000000000000000e-01) (7, 5, 5.00000000000000000000e-01) (7, 5, 5.00000000000000000000e-01) (7, 5, 5.00000000000000000000e-01) (7, 5, 5.00000000000000000000e-01) (7, 5, 5.00000000000000000000e-01) (7, 5, 5.00000000000000000000e-01) (7, 5, 5.00000000000000000000e-01) (7, 5, 5.00000000000000000000e-01) (7, 5, 5.00000000000000000000e-01) (7, 5, 5.00000000000000000000e-01) (7, 5, 5.00000000000000000000e-01) (7, 5, 5.00000000000000000000e-01) (7, 5, 5.00000000000000000000e-01) (7, 5, 5.00000000000000000000e-01) (7, 5, 5.00000000000000000000e-01) (0, 5, 0.00000000000000000000e+00) (37, 5, 5.00000000000000000000e-01) (37, 5, 5.00000000000000000000e-01) (37, 5, 5.00000000000000000000e-01) (0, 5, 0.00000000000000000000e+00) 
connections (connected_to_neuron, weight)=(0, -2.60082036256790161133e-01) (1, 5.03378733992576599121e-02) (2, -2.35374689102172851562e-01) (3, -8.39058011770248413086e-02) (4, -2.42372900247573852539e-01) (5, -3.47067773342132568359e-01) (6, 2.66615241765975952148e-01) (0, 3.85755039751529693604e-02) (1, 9.06183347105979919434e-02) (2, -8.58198180794715881348e-02) (3, -7.19380527734756469727e-02) (4, -1.05553120374679565430e-01) (5, -9.19413864612579345703e-02) (6, 6.84173777699470520020e-02) (0, -5.97356958314776420593e-03) (1, -2.76877284049987792969e-02) (2, -1.46415323019027709961e-01) (3, 9.41605493426322937012e-02) (4, -3.51412594318389892578e-02) (5, -1.30596667528152465820e-01) (6, 1.36377021670341491699e-01) (0, 9.36634093523025512695e-02) (1, 7.52000585198402404785e-02) (2, 1.87436826527118682861e-02) (3, -7.17401877045631408691e-02) (4, 5.43493889272212982178e-02) (5, -2.28450307622551918030e-03) (6, 1.89526621252298355103e-02) (0, -1.32446408271789550781e-01) (1, -1.99869722127914428711e-02) (2, -3.61114065162837505341e-03) (3, -7.61976419016718864441e-03) (4, -1.47703379392623901367e-01) (5, -9.21823829412460327148e-02) (6, 1.07262320816516876221e-01) (0, 1.00948661565780639648e-02) (1, -1.21926963329315185547e-02) (2, -8.36588218808174133301e-02) (3, -8.46415013074874877930e-03) (4, -5.23526594042778015137e-02) (5, -4.91917543113231658936e-02) (6, 5.36646470427513122559e-02) (0, -5.49386395141482353210e-03) (1, 1.12937241792678833008e-02) (2, -3.02568990737199783325e-02) (3, -4.91612702608108520508e-02) (4, 8.42218175530433654785e-02) (5, -6.27432856708765029907e-03) (6, -5.11600300669670104980e-02) (0, -1.04211427271366119385e-01) (1, 3.34843024611473083496e-02) (2, -2.23901674151420593262e-01) (3, -2.03658808022737503052e-02) (4, -1.31121546030044555664e-01) (5, -1.33929193019866943359e-01) (6, 1.54797449707984924316e-01) (0, -3.14313143491744995117e-01) (1, 7.60012343525886535645e-02) (2, -3.17738592624664306641e-01) (3, -4.60659526288509368896e-02) (4, -3.25575351715087890625e-01) (5, -3.46249550580978393555e-01) (6, 3.50684374570846557617e-01) (0, -1.59339368343353271484e-01) (1, 2.12136134505271911621e-02) (2, -1.64966762065887451172e-01) (3, -8.70786085724830627441e-02) (4, -2.55498290061950683594e-01) (5, -1.19398996233940124512e-01) (6, 1.81349620223045349121e-01) (0, -3.68721559643745422363e-02) (1, -7.32929408550262451172e-02) (2, -8.73607620596885681152e-02) (3, 8.02471488714218139648e-02) (4, 1.09587237238883972168e-02) (5, -1.76707133650779724121e-02) (6, -4.01695147156715393066e-02) (0, 1.63318529725074768066e-01) (1, -9.75179746747016906738e-02) (2, 1.40706568956375122070e-01) (3, -4.88455630838871002197e-02) (4, 1.95469453930854797363e-01) (5, 1.56609192490577697754e-01) (6, -1.29968121647834777832e-01) (0, -1.88191071152687072754e-01) (1, -9.70179960131645202637e-02) (2, -2.04258456826210021973e-01) (3, -2.94091906398534774780e-02) (4, -7.10809305310249328613e-02) (5, -1.44001916050910949707e-01) (6, 2.01925382018089294434e-01) (0, -6.98722153902053833008e-02) (1, 4.14044931530952453613e-02) (2, 1.49675803259015083313e-02) (3, 2.09590345621109008789e-02) (4, -4.41549085080623626709e-02) (5, -8.75171869993209838867e-02) (6, 5.14798015356063842773e-02) (0, -9.22689028084278106689e-03) (1, 6.43756464123725891113e-02) (2, -1.69940348714590072632e-02) (3, 6.04571178555488586426e-02) (4, 1.12756937742233276367e-01) (5, 2.29290593415498733521e-02) (6, 1.93802695721387863159e-02) (0, 5.21471984684467315674e-02) (1, -8.93735662102699279785e-02) (2, 9.97744873166084289551e-02) (3, -4.76625002920627593994e-02) (4, -6.10887780785560607910e-02) (5, -1.81108862161636352539e-02) (6, -3.40700298547744750977e-02) (0, 1.18994362652301788330e-01) (1, 5.31911179423332214355e-02) (2, -3.94557020626962184906e-04) (3, 9.87277776002883911133e-02) (4, 1.35142713785171508789e-01) (5, 4.47663106024265289307e-02) (6, -1.05150908231735229492e-01) (0, 9.49764624238014221191e-02) (1, 7.18589797616004943848e-02) (2, -7.14754220098257064819e-03) (3, 7.44474828243255615234e-02) (4, 8.11394229531288146973e-02) (5, 1.14509373903274536133e-01) (6, -7.63592571020126342773e-02) (0, 9.94199886918067932129e-02) (1, 6.58883675932884216309e-02) (2, -3.72200384736061096191e-02) (3, -5.07719591259956359863e-02) (4, 5.74389323592185974121e-02) (5, 2.49368268996477127075e-02) (6, -1.20568439364433288574e-01) (0, -7.80214145779609680176e-02) (1, 9.90169569849967956543e-02) (2, -6.36448413133621215820e-02) (3, -5.66768869757652282715e-02) (4, -2.02566772699356079102e-01) (5, -9.07068848609924316406e-02) (6, 1.13330997526645660400e-01) (0, -5.26513420045375823975e-02) (1, 7.75895193219184875488e-02) (2, 1.20281063020229339600e-01) (3, 7.35651776194572448730e-02) (4, 5.79712353646755218506e-02) (5, -5.86862079799175262451e-02) (6, 3.83608788251876831055e-02) (0, -1.88063502311706542969e-01) (1, -2.00810134410858154297e-02) (2, -2.56746679544448852539e-01) (3, -9.04338583350181579590e-02) (4, -2.46724262833595275879e-01) (5, -2.33451142907142639160e-01) (6, 2.90765792131423950195e-01) (0, 1.95810690522193908691e-01) (1, -8.83155316114425659180e-02) (2, 1.30465924739837646484e-01) (3, 5.02848364412784576416e-02) (4, 2.25247010588645935059e-01) (5, 1.67679399251937866211e-01) (6, -5.92309124767780303955e-02) (0, 6.20048828423023223877e-02) (1, -8.22328105568885803223e-02) (2, 1.55828163027763366699e-01) (3, -6.69326707720756530762e-02) (4, -2.18777470290660858154e-02) (5, 1.04048877954483032227e-01) (6, -8.17244276404380798340e-02) (0, -6.81118667125701904297e-02) (1, -3.57858091592788696289e-02) (2, 8.72213616967201232910e-02) (3, -5.03986626863479614258e-02) (4, -5.14130592346191406250e-02) (5, 8.03705006837844848633e-02) (6, -8.57765898108482360840e-02) (0, 1.63644850254058837891e-02) (1, 8.77104476094245910645e-02) (2, 2.36932989209890365601e-02) (3, -4.44703996181488037109e-02) (4, -9.55569595098495483398e-02) (5, -1.37257680296897888184e-01) (6, 4.48351241648197174072e-02) (0, 2.21878066658973693848e-01) (1, -9.01988148689270019531e-03) (2, 2.00284108519554138184e-01) (3, -1.09886738937348127365e-03) (4, 2.30790063738822937012e-01) (5, 2.85819143056869506836e-01) (6, -3.02754551172256469727e-01) (0, -1.12953178584575653076e-01) (1, -2.23024711012840270996e-02) (2, -1.90648272633552551270e-01) (3, 8.13926458358764648438e-02) (4, -1.10249459743499755859e-01) (5, -1.96848779916763305664e-01) (6, 2.29719262570142745972e-02) (0, 4.36305701732635498047e-02) (1, 5.15758916735649108887e-02) (2, 3.17104384303092956543e-02) (3, 4.08751703798770904541e-02) (4, -5.00239916145801544189e-02) (5, 1.17931896820664405823e-02) (6, 5.36687225103378295898e-02) (0, -3.34907062351703643799e-02) (1, -4.88060787320137023926e-02) (2, -8.13416540622711181641e-02) (3, -6.92100226879119873047e-02) (4, -5.17182126641273498535e-02) (5, 1.04798123240470886230e-01) (6, -1.96617953479290008545e-02) (0, 1.37760892510414123535e-01) (1, -7.86508023738861083984e-02) (2, 2.18202710151672363281e-01) (3, -6.46910592913627624512e-02) (4, 1.60032838582992553711e-01) (5, 9.29812863469123840332e-02) (6, -1.37314409017562866211e-01) (0, -1.94925591349601745605e-01) (1, -9.70305576920509338379e-02) (2, -8.75128060579299926758e-02) (3, -1.26291345804929733276e-02) (4, -1.43163830041885375977e-01) (5, -7.42538273334503173828e-02) (6, 1.07136785984039306641e-01) (0, 1.47850707173347473145e-01) (1, 5.84425702691078186035e-02) (2, 8.14701020717620849609e-02) (3, -6.42417091876268386841e-03) (4, 9.26187783479690551758e-02) (5, 1.80033951997756958008e-01) (6, -1.55541956424713134766e-01) (0, -1.17249563336372375488e-02) (1, -2.49587967991828918457e-02) (2, -1.27414673566818237305e-01) (3, 8.07012245059013366699e-02) (4, -1.63457486778497695923e-02) (5, -1.18806235492229461670e-01) (6, -4.38387207686901092529e-02) (0, 5.38277737796306610107e-02) (1, -8.08054879307746887207e-02) (2, -9.27000027149915695190e-03) (3, -2.91325524449348449707e-02) (4, -7.22554475069046020508e-02) (5, -3.81380207836627960205e-02) (6, 1.04138981550931930542e-02) (0, 1.55408173799514770508e-01) (1, 1.99380666017532348633e-02) (2, 2.31371615082025527954e-02) (3, 7.52175375819206237793e-02) (4, 1.38896167278289794922e-01) (5, 1.59755155444145202637e-01) (6, -1.52890413999557495117e-01) (7, -1.22948907315731048584e-01) (8, -2.58446522057056427002e-02) (9, 3.22269685566425323486e-02) (10, 9.64489355683326721191e-02) (11, -5.31843155622482299805e-02) (12, -5.46641089022159576416e-02) (13, -2.04464141279458999634e-02) (14, 1.21518358588218688965e-01) (15, -5.70032075047492980957e-02) (16, -1.05159645900130271912e-02) (17, -3.78951244056224822998e-02) (18, 8.24480801820755004883e-02) (19, -8.95845331251621246338e-03) (20, -4.42598722875118255615e-02) (21, -1.02214038372039794922e-01) (22, 1.99928525835275650024e-02) (23, -5.18437800928950309753e-03) (24, -1.59013286232948303223e-01) (25, 1.28240063786506652832e-01) (26, 1.34964928030967712402e-01) (27, -5.60232698917388916016e-02) (28, 1.20143078267574310303e-01) (29, -8.21882411837577819824e-02) (30, 1.62618339061737060547e-01) (31, 5.08438162505626678467e-02) (32, 1.38685360550880432129e-01) (33, 1.57518908381462097168e-01) (34, -2.31740679591894149780e-02) (35, -2.49021779745817184448e-02) (36, 4.57598641514778137207e-02) (37, 1.58410742878913879395e-01) (38, 4.50410805642604827881e-02) (39, -1.17054402828216552734e-01) (40, 9.07892063260078430176e-02) (41, -6.44244924187660217285e-02) (42, -6.24709427356719970703e-02) (43, 7.17616751790046691895e-02) (7, 6.01764380931854248047e-01) (8, 1.45316123962402343750e-01) (9, 2.00758159160614013672e-01) (10, -2.87907905876636505127e-02) (11, 1.56054332852363586426e-01) (12, 6.03537037968635559082e-02) (13, -6.65474385023117065430e-02) (14, 2.13094502687454223633e-01) (15, 8.03002059459686279297e-01) (16, 3.37165951728820800781e-01) (17, 4.81496602296829223633e-02) (18, -3.62088710069656372070e-01) (19, 3.26406925916671752930e-01) (20, 9.69929695129394531250e-02) (21, 1.94940832443535327911e-03) (22, 3.17163439467549324036e-03) (23, -1.57322421669960021973e-01) (24, -7.65603855252265930176e-02) (25, -1.64831951260566711426e-01) (26, 1.68597429990768432617e-01) (27, 3.43686006963253021240e-02) (28, 4.95932847261428833008e-01) (29, -2.34804123640060424805e-01) (30, -2.02374607324600219727e-01) (31, -3.58903817832469940186e-02) (32, 4.73145879805088043213e-02) (33, -6.30073130130767822266e-01) (34, 2.82765477895736694336e-01) (35, 5.92773593962192535400e-02) (36, 1.71634890139102935791e-02) (37, -3.50393414497375488281e-01) (38, 1.64873063564300537109e-01) (39, -2.22000509500503540039e-01) (40, 5.60587132349610328674e-03) (41, 8.96576046943664550781e-02) (42, -1.83298379182815551758e-01) (43, 8.79139661788940429688e-01) (7, -3.82902085781097412109e-01) (8, -8.36375430226325988770e-02) (9, -1.20755486190319061279e-01) (10, 6.17369785904884338379e-02) (11, -1.78586333990097045898e-01) (12, -1.01906940340995788574e-01) (13, -9.35710966587066650391e-04) (14, -3.19968074560165405273e-01) (15, -4.27631586790084838867e-01) (16, -2.92311877012252807617e-01) (17, -8.52684676647186279297e-03) (18, 1.88882470130920410156e-01) (19, -2.45251297950744628906e-01) (20, -6.57813474535942077637e-02) (21, 7.32069388031959533691e-02) (22, 7.21962675452232360840e-02) (23, 1.27757936716079711914e-01) (24, 1.81952401995658874512e-01) (25, 1.08822183683514595032e-02) (26, -2.25291535258293151855e-01) (27, 6.32193163037300109863e-02) (28, -3.95132541656494140625e-01) (29, 3.14803153276443481445e-01) (30, 5.70501349866390228271e-02) (31, 6.03646300733089447021e-02) (32, -1.30365386605262756348e-01) (33, 2.62235671281814575195e-01) (34, -1.59603565931320190430e-01) (35, 4.69524189829826354980e-02) (36, -1.43795926123857498169e-02) (37, 1.69045686721801757812e-01) (38, -2.56524085998535156250e-01) (39, 2.42729082703590393066e-01) (40, -1.56461179256439208984e-01) (41, 3.23009379208087921143e-02) (42, 2.62132287025451660156e-01) (43, 1.98486459255218505859e+00) 
