FANN_FLO_2.1
num_layers=3
learning_rate=0.700000
connection_rate=1.000000
network_type=0
learning_momentum=0.000000
training_algorithm=2
train_error_function=1
train_stop_function=0
cascade_output_change_fraction=0.010000
quickprop_decay=-0.000100
quickprop_mu=1.750000
rprop_increase_factor=1.200000
rprop_decrease_factor=0.500000
rprop_delta_min=0.000000
rprop_delta_max=50.000000
rprop_delta_zero=0.100000
cascade_output_stagnation_epochs=12
cascade_candidate_change_fraction=0.010000
cascade_candidate_stagnation_epochs=12
cascade_max_out_epochs=150
cascade_min_out_epochs=50
cascade_max_cand_epochs=150
cascade_min_cand_epochs=50
cascade_num_candidate_groups=2
bit_fail_limit=3.49999994039535522461e-01
cascade_candidate_limit=1.00000000000000000000e+03
cascade_weight_multiplier=4.00000005960464477539e-01
cascade_activation_functions_count=10
cascade_activation_functions=3 5 7 8 10 11 14 15 16 17 
cascade_activation_steepnesses_count=4
cascade_activation_steepnesses=2.50000000000000000000e-01 5.00000000000000000000e-01 7.50000000000000000000e-01 1.00000000000000000000e+00 
layer_sizes=6 11 2 
scale_included=0
neurons (num_inputs, activation_function, activation_steepness)=(0, 0, 0.00000000000000000000e+00) (0, 0, 0.00000000000000000000e+00) (0, 0, 0.00000000000000000000e+00) (0, 0, 0.00000000000000000000e+00) (0, 0, 0.00000000000000000000e+00) (0, 0, 0.00000000000000000000e+00) (6, 5, 5.00000000000000000000e-01) (6, 5, 5.00000000000000000000e-01) (6, 5, 5.00000000000000000000e-01) (6, 5, 5.00000000000000000000e-01) (6, 5, 5.00000000000000000000e-01) (6, 5, 5.00000000000000000000e-01) (6, 5, 5.00000000000000000000e-01) (6, 5, 5.00000000000000000000e-01) (6, 5, 5.00000000000000000000e-01) (6, 5, 5.00000000000000000000e-01) (0, 5, 0.00000000000000000000e+00) (11, 5, 5.00000000000000000000e-01) (0, 5, 0.00000000000000000000e+00) 
connections (connected_to_neuron, weight)=(0, -5.63107803463935852051e-02) (1, 5.59756010770797729492e-02) (2, 5.73937334120273590088e-02) (3, 8.19858908653259277344e-02) (4, 1.37198790907859802246e-02) (5, 9.08896550536155700684e-02) (0, -6.18962235748767852783e-02) (1, 3.58321368694305419922e-02) (2, -1.83959421701729297638e-03) (3, -1.00512102246284484863e-01) (4, -2.55254749208688735962e-02) (5, -8.77554342150688171387e-03) (0, 7.57546350359916687012e-02) (1, -7.97048360109329223633e-02) (2, -4.60632629692554473877e-02) (3, 1.11892288550734519958e-02) (4, 2.10370644927024841309e-02) (5, -5.32759912312030792236e-02) (0, -5.18303997814655303955e-02) (1, 3.71826961636543273926e-02) (2, -1.66818834841251373291e-02) (3, 4.95939105749130249023e-02) (4, 1.00623056292533874512e-01) (5, -8.89875069260597229004e-02) (0, 5.50533011555671691895e-02) (1, 6.04599080979824066162e-02) (2, -6.69772997498512268066e-02) (3, 6.50201663374900817871e-02) (4, 8.57228115200996398926e-02) (5, 2.16551162302494049072e-02) (0, 2.97889858484268188477e-03) (1, -7.03985765576362609863e-02) (2, -8.74660443514585494995e-03) (3, -3.30555140972137451172e-02) (4, -7.64693170785903930664e-02) (5, -9.41608548164367675781e-02) (0, -4.91135083138942718506e-02) (1, -3.68235260248184204102e-02) (2, 4.94898296892642974854e-02) (3, 5.35476505756378173828e-02) (4, -2.93383859097957611084e-02) (5, -7.54739567637443542480e-02) (0, -5.99816851317882537842e-02) (1, -4.81110215187072753906e-02) (2, -6.07970170676708221436e-02) (3, 1.35478924494236707687e-03) (4, 4.79330047965049743652e-02) (5, 5.62879517674446105957e-02) (0, 4.09507080912590026855e-02) (1, 9.02161672711372375488e-02) (2, -9.64628532528877258301e-03) (3, -8.30622762441635131836e-02) (4, 3.81549522280693054199e-02) (5, -7.97861907631158828735e-03) (0, -6.45828992128372192383e-02) (1, 3.01156658679246902466e-03) (2, -6.10501430928707122803e-02) (3, -2.12775953114032745361e-02) (4, -5.94351477921009063721e-02) (5, -8.19257125258445739746e-02) (6, 6.41672983765602111816e-02) (7, 5.64636923372745513916e-02) (8, -4.34115007519721984863e-02) (9, -3.89746464788913726807e-02) (10, -1.14931598305702209473e-01) (11, -1.30633302032947540283e-02) (12, -2.04137209802865982056e-02) (13, -3.49046401679515838623e-02) (14, 3.20737138390541076660e-02) (15, -5.54624646902084350586e-02) (16, -2.97486297786235809326e-02) 
